<?xml version="1.0"?>
<MethodSetup Method="BDT::BDTF">
  <GeneralInfo>
    <Info name="TMVA Release" value="4.2.1 [262657]"/>
    <Info name="ROOT Release" value="6.24/06 [399366]"/>
    <Info name="Creator" value="mjongerh"/>
    <Info name="Date" value="Wed Feb 23 15:04:19 2022"/>
    <Info name="Host" value="Linux alicecerno2 5.4.0-90-generic #101-Ubuntu SMP Fri Oct 15 20:00:55 UTC 2021 x86_64 x86_64 x86_64 GNU/Linux"/>
    <Info name="Dir" value="/home/mjongerh/alice/SharedFol/CERN/Lb"/>
    <Info name="Training events" value="49456"/>
    <Info name="TrainingTime" value="5.51506400e+00"/>
    <Info name="AnalysisType" value="Classification"/>
  </GeneralInfo>
  <Options>
    <Option name="V" modified="Yes">False</Option>
    <Option name="VerbosityLevel" modified="No">Default</Option>
    <Option name="VarTransform" modified="No">None</Option>
    <Option name="H" modified="Yes">False</Option>
    <Option name="CreateMVAPdfs" modified="No">False</Option>
    <Option name="IgnoreNegWeightsInTraining" modified="No">False</Option>
    <Option name="NTrees" modified="Yes">50</Option>
    <Option name="MaxDepth" modified="Yes">3</Option>
    <Option name="MinNodeSize" modified="Yes">2.5%</Option>
    <Option name="nCuts" modified="Yes">20</Option>
    <Option name="BoostType" modified="Yes">AdaBoost</Option>
    <Option name="AdaBoostR2Loss" modified="No">quadratic</Option>
    <Option name="UseBaggedBoost" modified="No">False</Option>
    <Option name="Shrinkage" modified="No">1.000000e+00</Option>
    <Option name="AdaBoostBeta" modified="Yes">5.000000e-01</Option>
    <Option name="UseRandomisedTrees" modified="No">False</Option>
    <Option name="UseNvars" modified="No">3</Option>
    <Option name="UsePoissonNvars" modified="No">True</Option>
    <Option name="BaggedSampleFraction" modified="No">6.000000e-01</Option>
    <Option name="UseYesNoLeaf" modified="No">True</Option>
    <Option name="NegWeightTreatment" modified="No">inverseboostnegweights</Option>
    <Option name="Css" modified="No">1.000000e+00</Option>
    <Option name="Cts_sb" modified="No">1.000000e+00</Option>
    <Option name="Ctb_ss" modified="No">1.000000e+00</Option>
    <Option name="Cbb" modified="No">1.000000e+00</Option>
    <Option name="NodePurityLimit" modified="No">5.000000e-01</Option>
    <Option name="SeparationType" modified="Yes">giniindex</Option>
    <Option name="RegressionLossFunctionBDTG" modified="No">huber</Option>
    <Option name="HuberQuantile" modified="No">7.000000e-01</Option>
    <Option name="DoBoostMonitor" modified="No">False</Option>
    <Option name="UseFisherCuts" modified="Yes">True</Option>
    <Option name="MinLinCorrForFisher" modified="No">8.000000e-01</Option>
    <Option name="UseExclusiveVars" modified="No">False</Option>
    <Option name="DoPreselection" modified="No">False</Option>
    <Option name="SigToBkgFraction" modified="No">1.000000e+00</Option>
    <Option name="PruneMethod" modified="No">nopruning</Option>
    <Option name="PruneStrength" modified="No">0.000000e+00</Option>
    <Option name="PruningValFraction" modified="No">5.000000e-01</Option>
    <Option name="SkipNormalization" modified="No">False</Option>
    <Option name="nEventsMin" modified="No">0</Option>
    <Option name="UseBaggedGrad" modified="No">False</Option>
    <Option name="GradBaggingFraction" modified="No">6.000000e-01</Option>
    <Option name="UseNTrainEvents" modified="No">0</Option>
    <Option name="NNodesMax" modified="No">0</Option>
  </Options>
  <Variables NVar="7">
    <Variable VarIndex="0" Expression="fCPA" Label="fCPA" Title="fCPA" Unit="units" Internal="fCPA" Type="F" Min="9.50000167e-01" Max="1.00000000e+00"/>
    <Variable VarIndex="1" Expression="fCPAXY" Label="fCPAXY" Title="fCPAXY" Unit="units" Internal="fCPAXY" Type="F" Min="-9.99749720e-01" Max="1.00000000e+00"/>
    <Variable VarIndex="2" Expression="fChi2PCA" Label="fChi2PCA" Title="fChi2PCA" Unit="units" Internal="fChi2PCA" Type="F" Min="7.12091582e-18" Max="9.99586191e-05"/>
    <Variable VarIndex="3" Expression="fDecayLength" Label="fDecayLength" Title="fDecayLength" Unit="units" Internal="fDecayLength" Type="F" Min="5.00783697e-03" Max="2.45316181e+01"/>
    <Variable VarIndex="4" Expression="fDecayLengthXY" Label="fDecayLengthXY" Title="fDecayLengthXY" Unit="units" Internal="fDecayLengthXY" Type="F" Min="5.00002177e-03" Max="2.08340054e+01"/>
    <Variable VarIndex="5" Expression="fImpactParameter0" Label="fImpactParameter0" Title="fImpactParameter0" Unit="units" Internal="fImpactParameter0" Type="F" Min="-1.76397100e-01" Max="1.69094101e-01"/>
    <Variable VarIndex="6" Expression="fImpactParameter1" Label="fImpactParameter1" Title="fImpactParameter1" Unit="units" Internal="fImpactParameter1" Type="F" Min="-2.77989411e+00" Max="2.03893828e+00"/>
  </Variables>
  <Spectators NSpec="4">
    <Spectator SpecIndex="0" Expression="fPtProng0" Label="fPtProng0" Title="fPtProng0" Unit="units" Internal="fPtProng0" Type="F" Min="5.00036478e-01" Max="5.51516151e+00"/>
    <Spectator SpecIndex="1" Expression="fPtProng1" Label="fPtProng1" Title="fPtProng1" Unit="units" Internal="fPtProng1" Type="F" Min="5.00010014e-01" Max="4.91962242e+00"/>
    <Spectator SpecIndex="2" Expression="fM" Label="fM" Title="fM" Unit="units" Internal="fM" Type="F" Min="4.62025452e+00" Max="6.62003851e+00"/>
    <Spectator SpecIndex="3" Expression="fPt" Label="fPt" Title="fPt" Unit="Gev" Internal="fPt" Type="F" Min="3.00001025e+00" Max="3.99999690e+00"/>
  </Spectators>
  <Classes NClass="2">
    <Class Name="Signal" Index="0"/>
    <Class Name="Background" Index="1"/>
  </Classes>
  <Transformations NTransformations="0"/>
  <MVAPdfs/>
  <Weights NTrees="50" AnalysisType="0">
    <BinaryTree type="DecisionTree" boostWeight="5.3117574938268530e-01" itree="0">
      <Node pos="s" depth="0" NCoef="0" IVar="0" Cut="9.9761903285980225e-01" cType="0" res="-9.9000000000000000e+01" rms="0.0000000000000000e+00" purity="5.0000000000000000e-01" nType="0">
        <Node pos="l" depth="1" NCoef="0" IVar="0" Cut="9.9988663196563721e-01" cType="0" res="-9.9000000000000000e+01" rms="0.0000000000000000e+00" purity="6.4997774362564087e-01" nType="0">
          <Node pos="l" depth="2" NCoef="0" IVar="-1" Cut="9.9988985061645508e-01" cType="0" res="-9.9000000000000000e+01" rms="0.0000000000000000e+00" purity="7.4857532978057861e-01" nType="1"/>
          <Node pos="r" depth="2" NCoef="0" IVar="5" Cut="9.5962211489677429e-03" cType="1" res="-9.9000000000000000e+01" rms="0.0000000000000000e+00" purity="4.9942895770072937e-01" nType="0">
            <Node pos="l" depth="3" NCoef="0" IVar="-1" Cut="0.0000000000000000e+00" cType="1" res="-9.9000000000000000e+01" rms="0.0000000000000000e+00" purity="5.3478366136550903e-01" nType="1"/>
            <Node pos="r" depth="3" NCoef="0" IVar="-1" Cut="0.0000000000000000e+00" cType="1" res="-9.9000000000000000e+01" rms="0.0000000000000000e+00" purity="2.8190824389457703e-01" nType="-1"/>
          </Node>
        </Node>
        <Node pos="r" depth="1" NCoef="0" IVar="-1" Cut="9.9535137414932251e-01" cType="0" res="-9.9000000000000000e+01" rms="0.0000000000000000e+00" purity="4.9526363611221313e-02" nType="-1"/>
      </Node>
    </BinaryTree>
    <BinaryTree type="DecisionTree" boostWeight="3.8731513734249029e-01" itree="1">
      <Node pos="s" depth="0" NCoef="0" IVar="0" Cut="9.9523812532424927e-01" cType="0" res="-9.9000000000000000e+01" rms="0.0000000000000000e+00" purity="4.3801257014274597e-01" nType="0">
        <Node pos="l" depth="1" NCoef="0" IVar="0" Cut="9.9977332353591919e-01" cType="0" res="-9.9000000000000000e+01" rms="0.0000000000000000e+00" purity="5.3217047452926636e-01" nType="0">
          <Node pos="l" depth="2" NCoef="0" IVar="-1" Cut="9.9995684623718262e-01" cType="0" res="-9.9000000000000000e+01" rms="0.0000000000000000e+00" purity="6.1278825998306274e-01" nType="1"/>
          <Node pos="r" depth="2" NCoef="0" IVar="-1" Cut="-4.3811434879899025e-03" cType="0" res="-9.9000000000000000e+01" rms="0.0000000000000000e+00" purity="3.7180233001708984e-01" nType="-1"/>
        </Node>
        <Node pos="r" depth="1" NCoef="0" IVar="-1" Cut="9.9092954397201538e-01" cType="0" res="-9.9000000000000000e+01" rms="0.0000000000000000e+00" purity="1.9672945141792297e-02" nType="-1"/>
      </Node>
    </BinaryTree>
    <BinaryTree type="DecisionTree" boostWeight="2.5679537034508793e-01" itree="2">
      <Node pos="s" depth="0" NCoef="0" IVar="0" Cut="9.9523812532424927e-01" cType="0" res="-9.9000000000000000e+01" rms="0.0000000000000000e+00" purity="4.2441317439079285e-01" nType="0">
        <Node pos="l" depth="1" NCoef="8" fC0="0.0000000000000000e+00" fC1="0.0000000000000000e+00" fC2="0.0000000000000000e+00" fC3="-7.3859939559225007e-01" fC4="7.7587791454742039e-01" fC5="9.1264963331947124e-01" fC6="-6.2263908423613609e-02" fC7="1.8401615514568394e-02" IVar="7" Cut="1.3223515124991536e-03" cType="0" res="-9.9000000000000000e+01" rms="0.0000000000000000e+00" purity="5.0054579973220825e-01" nType="0">
          <Node pos="l" depth="2" NCoef="0" IVar="6" Cut="-4.3200835585594177e-02" cType="0" res="-9.9000000000000000e+01" rms="0.0000000000000000e+00" purity="5.3808343410491943e-01" nType="0">
            <Node pos="l" depth="3" NCoef="0" IVar="-1" Cut="0.0000000000000000e+00" cType="1" res="-9.9000000000000000e+01" rms="0.0000000000000000e+00" purity="5.4836040735244751e-01" nType="1"/>
            <Node pos="r" depth="3" NCoef="0" IVar="-1" Cut="0.0000000000000000e+00" cType="1" res="-9.9000000000000000e+01" rms="0.0000000000000000e+00" purity="3.8324254751205444e-01" nType="-1"/>
          </Node>
          <Node pos="r" depth="2" NCoef="0" IVar="-1" Cut="9.9977403879165649e-01" cType="0" res="-9.9000000000000000e+01" rms="0.0000000000000000e+00" purity="4.2828372120857239e-01" nType="-1"/>
        </Node>
        <Node pos="r" depth="1" NCoef="0" IVar="-1" Cut="9.8662120103836060e-01" cType="0" res="-9.9000000000000000e+01" rms="0.0000000000000000e+00" purity="2.8711473569273949e-02" nType="-1"/>
      </Node>
    </BinaryTree>
    <BinaryTree type="DecisionTree" boostWeight="2.8979287354397998e-01" itree="3">
      <Node pos="s" depth="0" NCoef="0" IVar="0" Cut="9.9523812532424927e-01" cType="0" res="-9.9000000000000000e+01" rms="0.0000000000000000e+00" purity="4.1958752274513245e-01" nType="0">
        <Node pos="l" depth="1" NCoef="0" IVar="0" Cut="9.9954658746719360e-01" cType="0" res="-9.9000000000000000e+01" rms="0.0000000000000000e+00" purity="4.8536321520805359e-01" nType="0">
          <Node pos="l" depth="2" NCoef="0" IVar="0" Cut="9.9995684623718262e-01" cType="0" res="-9.9000000000000000e+01" rms="0.0000000000000000e+00" purity="5.1612114906311035e-01" nType="0">
            <Node pos="l" depth="3" NCoef="0" IVar="-1" Cut="0.0000000000000000e+00" cType="1" res="-9.9000000000000000e+01" rms="0.0000000000000000e+00" purity="5.9072023630142212e-01" nType="1"/>
            <Node pos="r" depth="3" NCoef="0" IVar="-1" Cut="0.0000000000000000e+00" cType="1" res="-9.9000000000000000e+01" rms="0.0000000000000000e+00" purity="4.4100400805473328e-01" nType="-1"/>
          </Node>
          <Node pos="r" depth="2" NCoef="0" IVar="-1" Cut="6.2325340695679188e-03" cType="1" res="-9.9000000000000000e+01" rms="0.0000000000000000e+00" purity="3.7659516930580139e-01" nType="-1"/>
        </Node>
        <Node pos="r" depth="1" NCoef="0" IVar="-1" Cut="9.8662120103836060e-01" cType="0" res="-9.9000000000000000e+01" rms="0.0000000000000000e+00" purity="3.6808218806982040e-02" nType="-1"/>
      </Node>
    </BinaryTree>
    <BinaryTree type="DecisionTree" boostWeight="1.8435422590672504e-01" itree="4">
      <Node pos="s" depth="0" NCoef="0" IVar="0" Cut="9.9285715818405151e-01" cType="0" res="-9.9000000000000000e+01" rms="0.0000000000000000e+00" purity="4.4111752510070801e-01" nType="0">
        <Node pos="l" depth="1" NCoef="0" IVar="0" Cut="9.9931979179382324e-01" cType="0" res="-9.9000000000000000e+01" rms="0.0000000000000000e+00" purity="4.9775853753089905e-01" nType="0">
          <Node pos="l" depth="2" NCoef="0" IVar="5" Cut="-2.8329443186521530e-02" cType="0" res="-9.9000000000000000e+01" rms="0.0000000000000000e+00" purity="5.1500618457794189e-01" nType="0">
            <Node pos="l" depth="3" NCoef="0" IVar="-1" Cut="0.0000000000000000e+00" cType="1" res="-9.9000000000000000e+01" rms="0.0000000000000000e+00" purity="5.2332741022109985e-01" nType="1"/>
            <Node pos="r" depth="3" NCoef="0" IVar="-1" Cut="0.0000000000000000e+00" cType="1" res="-9.9000000000000000e+01" rms="0.0000000000000000e+00" purity="3.5468545556068420e-01" nType="-1"/>
          </Node>
          <Node pos="r" depth="2" NCoef="0" IVar="-1" Cut="9.9655020236968994e-01" cType="0" res="-9.9000000000000000e+01" rms="0.0000000000000000e+00" purity="4.1606694459915161e-01" nType="-1"/>
        </Node>
        <Node pos="r" depth="1" NCoef="8" fC0="8.3784923292394620e+00" fC1="0.0000000000000000e+00" fC2="0.0000000000000000e+00" fC3="-1.3914209102041473e+00" fC4="1.4297711582296158e+00" fC5="-1.3523969594993261e+00" fC6="2.8064009280709550e-02" fC7="-8.1791562581652109e+00" IVar="-1" Cut="-4.5237287878990173e-02" cType="0" res="-9.9000000000000000e+01" rms="0.0000000000000000e+00" purity="2.1637715399265289e-02" nType="-1"/>
      </Node>
    </BinaryTree>
    <BinaryTree type="DecisionTree" boostWeight="1.5686016404251701e-01" itree="5">
      <Node pos="s" depth="0" NCoef="0" IVar="-1" Cut="9.9285715818405151e-01" cType="0" res="-9.9000000000000000e+01" rms="0.0000000000000000e+00" purity="4.2220687866210938e-01" nType="-1"/>
    </BinaryTree>
    <BinaryTree type="DecisionTree" boostWeight="1.7172306204348387e-01" itree="6">
      <Node pos="s" depth="0" NCoef="0" IVar="0" Cut="9.9285715818405151e-01" cType="0" res="-9.9000000000000000e+01" rms="0.0000000000000000e+00" purity="4.6086513996124268e-01" nType="0">
        <Node pos="l" depth="1" NCoef="0" IVar="5" Cut="2.1026443690061569e-02" cType="1" res="-9.9000000000000000e+01" rms="0.0000000000000000e+00" purity="5.1054584980010986e-01" nType="0">
          <Node pos="l" depth="2" NCoef="0" IVar="5" Cut="-7.1775983087718487e-03" cType="0" res="-9.9000000000000000e+01" rms="0.0000000000000000e+00" purity="5.2028375864028931e-01" nType="0">
            <Node pos="l" depth="3" NCoef="0" IVar="-1" Cut="0.0000000000000000e+00" cType="1" res="-9.9000000000000000e+01" rms="0.0000000000000000e+00" purity="5.3783512115478516e-01" nType="1"/>
            <Node pos="r" depth="3" NCoef="0" IVar="-1" Cut="0.0000000000000000e+00" cType="1" res="-9.9000000000000000e+01" rms="0.0000000000000000e+00" purity="4.7309714555740356e-01" nType="-1"/>
          </Node>
          <Node pos="r" depth="2" NCoef="0" IVar="-1" Cut="0.0000000000000000e+00" cType="1" res="-9.9000000000000000e+01" rms="0.0000000000000000e+00" purity="3.8495236635208130e-01" nType="-1"/>
        </Node>
        <Node pos="r" depth="1" NCoef="8" fC0="9.8504248447109415e+00" fC1="0.0000000000000000e+00" fC2="0.0000000000000000e+00" fC3="-1.6358655668317008e+00" fC4="1.6809531817758165e+00" fC5="-1.5899858932058248e+00" fC6="3.2994291025151015e-02" fC7="-9.6160694368646400e+00" IVar="-1" Cut="-5.3184568881988525e-02" cType="0" res="-9.9000000000000000e+01" rms="0.0000000000000000e+00" purity="3.0171319842338562e-02" nType="-1"/>
      </Node>
    </BinaryTree>
    <BinaryTree type="DecisionTree" boostWeight="1.6764236502685487e-01" itree="7">
      <Node pos="s" depth="0" NCoef="0" IVar="0" Cut="9.9285715818405151e-01" cType="0" res="-9.9000000000000000e+01" rms="0.0000000000000000e+00" purity="4.5103171467781067e-01" nType="0">
        <Node pos="l" depth="1" NCoef="8" fC0="0.0000000000000000e+00" fC1="0.0000000000000000e+00" fC2="0.0000000000000000e+00" fC3="-5.1268321804449113e-01" fC4="5.1247219802173316e-01" fC5="-8.7429740184251981e-01" fC6="1.3204991037871092e-01" fC7="1.2762327151745467e-02" IVar="7" Cut="-1.6562446951866150e-02" cType="0" res="-9.9000000000000000e+01" rms="0.0000000000000000e+00" purity="4.9540168046951294e-01" nType="0">
          <Node pos="l" depth="2" NCoef="8" fC0="0.0000000000000000e+00" fC1="0.0000000000000000e+00" fC2="0.0000000000000000e+00" fC3="-6.5942795844971713e-01" fC4="-2.4054179419453283e+00" fC5="-8.6271504021226664e-01" fC6="1.3413250952553437e+00" fC7="7.5286286975402600e-02" IVar="7" Cut="-7.7784143388271332e-02" cType="0" res="-9.9000000000000000e+01" rms="0.0000000000000000e+00" purity="5.0964099168777466e-01" nType="0">
            <Node pos="l" depth="3" NCoef="0" IVar="-1" Cut="0.0000000000000000e+00" cType="1" res="-9.9000000000000000e+01" rms="0.0000000000000000e+00" purity="5.2482515573501587e-01" nType="1"/>
            <Node pos="r" depth="3" NCoef="0" IVar="-1" Cut="0.0000000000000000e+00" cType="1" res="-9.9000000000000000e+01" rms="0.0000000000000000e+00" purity="3.6759933829307556e-01" nType="-1"/>
          </Node>
          <Node pos="r" depth="2" NCoef="0" IVar="-1" Cut="2.1026443690061569e-02" cType="0" res="-9.9000000000000000e+01" rms="0.0000000000000000e+00" purity="4.2017647624015808e-01" nType="-1"/>
        </Node>
        <Node pos="r" depth="1" NCoef="8" fC0="1.0673237790531704e+01" fC1="0.0000000000000000e+00" fC2="0.0000000000000000e+00" fC3="-1.7725105733094839e+00" fC4="1.8213643885846706e+00" fC5="-1.7227985381672466e+00" fC6="3.5750327465741305e-02" fC7="-1.0419306509915982e+01" IVar="-1" Cut="-5.7627111673355103e-02" cType="0" res="-9.9000000000000000e+01" rms="0.0000000000000000e+00" purity="3.5622522234916687e-02" nType="-1"/>
      </Node>
    </BinaryTree>
    <BinaryTree type="DecisionTree" boostWeight="1.4445852367853695e-01" itree="8">
      <Node pos="s" depth="0" NCoef="0" IVar="0" Cut="9.9285715818405151e-01" cType="0" res="-9.9000000000000000e+01" rms="0.0000000000000000e+00" purity="4.3454083800315857e-01" nType="0">
        <Node pos="l" depth="1" NCoef="0" IVar="0" Cut="9.9659889936447144e-01" cType="0" res="-9.9000000000000000e+01" rms="0.0000000000000000e+00" purity="4.7350212931632996e-01" nType="0">
          <Node pos="l" depth="2" NCoef="0" IVar="0" Cut="9.9773281812667847e-01" cType="1" res="-9.9000000000000000e+01" rms="0.0000000000000000e+00" purity="4.7851732373237610e-01" nType="0">
            <Node pos="l" depth="3" NCoef="0" IVar="-1" Cut="0.0000000000000000e+00" cType="1" res="-9.9000000000000000e+01" rms="0.0000000000000000e+00" purity="6.1379837989807129e-01" nType="1"/>
            <Node pos="r" depth="3" NCoef="0" IVar="-1" Cut="0.0000000000000000e+00" cType="1" res="-9.9000000000000000e+01" rms="0.0000000000000000e+00" purity="4.7415977716445923e-01" nType="-1"/>
          </Node>
          <Node pos="r" depth="2" NCoef="0" IVar="-1" Cut="0.0000000000000000e+00" cType="1" res="-9.9000000000000000e+01" rms="0.0000000000000000e+00" purity="3.0742570757865906e-01" nType="-1"/>
        </Node>
        <Node pos="r" depth="1" NCoef="8" fC0="1.1531473209863394e+01" fC1="0.0000000000000000e+00" fC2="0.0000000000000000e+00" fC3="-1.9150382096212746e+00" fC4="1.9678203618642507e+00" fC5="-1.8613288279713915e+00" fC6="3.8625012527065537e-02" fC7="-1.1257123306201930e+01" IVar="-1" Cut="-6.2260910868644714e-02" cType="0" res="-9.9000000000000000e+01" rms="0.0000000000000000e+00" purity="4.1852016001939774e-02" nType="-1"/>
      </Node>
    </BinaryTree>
    <BinaryTree type="DecisionTree" boostWeight="1.2863812247679313e-01" itree="9">
      <Node pos="s" depth="0" NCoef="0" IVar="0" Cut="9.9285715818405151e-01" cType="0" res="-9.9000000000000000e+01" rms="0.0000000000000000e+00" purity="4.6827772259712219e-01" nType="0">
        <Node pos="l" depth="1" NCoef="0" IVar="0" Cut="9.9659889936447144e-01" cType="0" res="-9.9000000000000000e+01" rms="0.0000000000000000e+00" purity="5.0740563869476318e-01" nType="0">
          <Node pos="l" depth="2" NCoef="0" IVar="0" Cut="9.9983805418014526e-01" cType="0" res="-9.9000000000000000e+01" rms="0.0000000000000000e+00" purity="5.1237016916275024e-01" nType="0">
            <Node pos="l" depth="3" NCoef="0" IVar="-1" Cut="0.0000000000000000e+00" cType="1" res="-9.9000000000000000e+01" rms="0.0000000000000000e+00" purity="5.2867519855499268e-01" nType="1"/>
            <Node pos="r" depth="3" NCoef="0" IVar="-1" Cut="0.0000000000000000e+00" cType="1" res="-9.9000000000000000e+01" rms="0.0000000000000000e+00" purity="4.8428353667259216e-01" nType="-1"/>
          </Node>
          <Node pos="r" depth="2" NCoef="0" IVar="-1" Cut="0.0000000000000000e+00" cType="1" res="-9.9000000000000000e+01" rms="0.0000000000000000e+00" purity="3.3900675177574158e-01" nType="-1"/>
        </Node>
        <Node pos="r" depth="1" NCoef="8" fC0="1.2315098654574946e+01" fC1="0.0000000000000000e+00" fC2="0.0000000000000000e+00" fC3="-2.0451753258072194e+00" fC4="2.1015443083524303e+00" fC5="-1.9878161036554289e+00" fC6="4.1249789264571894e-02" fC7="-1.2022105203697478e+01" IVar="-1" Cut="-6.6491872072219849e-02" cType="0" res="-9.9000000000000000e+01" rms="0.0000000000000000e+00" purity="4.8043902963399887e-02" nType="-1"/>
      </Node>
    </BinaryTree>
    <BinaryTree type="DecisionTree" boostWeight="8.6029157236928167e-02" itree="10">
      <Node pos="s" depth="0" NCoef="0" IVar="0" Cut="9.9285715818405151e-01" cType="0" res="-9.9000000000000000e+01" rms="0.0000000000000000e+00" purity="4.6398448944091797e-01" nType="0">
        <Node pos="l" depth="1" NCoef="0" IVar="0" Cut="9.9659889936447144e-01" cType="0" res="-9.9000000000000000e+01" rms="0.0000000000000000e+00" purity="5.0004613399505615e-01" nType="0">
          <Node pos="l" depth="2" NCoef="0" IVar="-1" Cut="9.9773281812667847e-01" cType="1" res="-9.9000000000000000e+01" rms="0.0000000000000000e+00" purity="5.0385862588882446e-01" nType="1"/>
          <Node pos="r" depth="2" NCoef="0" IVar="-1" Cut="0.0000000000000000e+00" cType="1" res="-9.9000000000000000e+01" rms="0.0000000000000000e+00" purity="3.6840036511421204e-01" nType="-1"/>
        </Node>
        <Node pos="r" depth="1" NCoef="8" fC0="1.3047171461505005e+01" fC1="0.0000000000000000e+00" fC2="0.0000000000000000e+00" fC3="-2.1667510665462433e+00" fC4="2.2264709113477235e+00" fC5="-2.1059821171933089e+00" fC6="4.3701888906525502e-02" fC7="-1.2736760972890622e+01" IVar="-1" Cut="-7.0444494485855103e-02" cType="0" res="-9.9000000000000000e+01" rms="0.0000000000000000e+00" purity="5.4281286895275116e-02" nType="-1"/>
      </Node>
    </BinaryTree>
    <BinaryTree type="DecisionTree" boostWeight="1.1667495936068006e-01" itree="11">
      <Node pos="s" depth="0" NCoef="0" IVar="0" Cut="9.9285715818405151e-01" cType="0" res="-9.9000000000000000e+01" rms="0.0000000000000000e+00" purity="4.4688415527343750e-01" nType="0">
        <Node pos="l" depth="1" NCoef="0" IVar="0" Cut="9.9659889936447144e-01" cType="0" res="-9.9000000000000000e+01" rms="0.0000000000000000e+00" purity="4.7974902391433716e-01" nType="0">
          <Node pos="l" depth="2" NCoef="0" IVar="0" Cut="9.9773281812667847e-01" cType="1" res="-9.9000000000000000e+01" rms="0.0000000000000000e+00" purity="4.8235872387886047e-01" nType="0">
            <Node pos="l" depth="3" NCoef="0" IVar="-1" Cut="0.0000000000000000e+00" cType="1" res="-9.9000000000000000e+01" rms="0.0000000000000000e+00" purity="5.8939313888549805e-01" nType="1"/>
            <Node pos="r" depth="3" NCoef="0" IVar="-1" Cut="0.0000000000000000e+00" cType="1" res="-9.9000000000000000e+01" rms="0.0000000000000000e+00" purity="4.7894084453582764e-01" nType="-1"/>
          </Node>
          <Node pos="r" depth="2" NCoef="0" IVar="-1" Cut="0.0000000000000000e+00" cType="1" res="-9.9000000000000000e+01" rms="0.0000000000000000e+00" purity="3.8863435387611389e-01" nType="-1"/>
        </Node>
        <Node pos="r" depth="1" NCoef="8" fC0="1.3554536202869544e+01" fC1="0.0000000000000000e+00" fC2="0.0000000000000000e+00" fC3="-2.2510094132251020e+00" fC4="2.3130515808223602e+00" fC5="-2.1878773446632427e+00" fC6="4.5401322205868039e-02" fC7="-1.3232054796224933e+01" IVar="-1" Cut="-7.3183864355087280e-02" cType="0" res="-9.9000000000000000e+01" rms="0.0000000000000000e+00" purity="5.8870732784271240e-02" nType="-1"/>
      </Node>
    </BinaryTree>
    <BinaryTree type="DecisionTree" boostWeight="9.4391628905054939e-02" itree="12">
      <Node pos="s" depth="0" NCoef="0" IVar="0" Cut="9.9285715818405151e-01" cType="0" res="-9.9000000000000000e+01" rms="0.0000000000000000e+00" purity="4.7422939538955688e-01" nType="0">
        <Node pos="l" depth="1" NCoef="0" IVar="0" Cut="9.9659889936447144e-01" cType="0" res="-9.9000000000000000e+01" rms="0.0000000000000000e+00" purity="5.0715309381484985e-01" nType="0">
          <Node pos="l" depth="2" NCoef="0" IVar="5" Cut="4.5744813978672028e-03" cType="1" res="-9.9000000000000000e+01" rms="0.0000000000000000e+00" purity="5.0971752405166626e-01" nType="0">
            <Node pos="l" depth="3" NCoef="0" IVar="-1" Cut="0.0000000000000000e+00" cType="1" res="-9.9000000000000000e+01" rms="0.0000000000000000e+00" purity="5.1790285110473633e-01" nType="1"/>
            <Node pos="r" depth="3" NCoef="0" IVar="-1" Cut="0.0000000000000000e+00" cType="1" res="-9.9000000000000000e+01" rms="0.0000000000000000e+00" purity="4.9378648400306702e-01" nType="-1"/>
          </Node>
          <Node pos="r" depth="2" NCoef="0" IVar="-1" Cut="0.0000000000000000e+00" cType="1" res="-9.9000000000000000e+01" rms="0.0000000000000000e+00" purity="4.1668877005577087e-01" nType="-1"/>
        </Node>
        <Node pos="r" depth="1" NCoef="8" fC0="1.4264867022630099e+01" fC1="0.0000000000000000e+00" fC2="0.0000000000000000e+00" fC3="-2.3689744498851906e+00" fC4="2.4342679617568024e+00" fC5="-2.3025339202953181e+00" fC6="4.7780596410196996e-02" fC7="-1.3925485850582566e+01" IVar="-1" Cut="-7.7019095420837402e-02" cType="0" res="-9.9000000000000000e+01" rms="0.0000000000000000e+00" purity="6.5677732229232788e-02" nType="-1"/>
      </Node>
    </BinaryTree>
    <BinaryTree type="DecisionTree" boostWeight="8.9183396458612077e-02" itree="13">
      <Node pos="s" depth="0" NCoef="0" IVar="0" Cut="9.9285715818405151e-01" cType="0" res="-9.9000000000000000e+01" rms="0.0000000000000000e+00" purity="4.6963924169540405e-01" nType="0">
        <Node pos="l" depth="1" NCoef="0" IVar="5" Cut="-2.8329443186521530e-02" cType="0" res="-9.9000000000000000e+01" rms="0.0000000000000000e+00" purity="5.0043910741806030e-01" nType="0">
          <Node pos="l" depth="2" NCoef="8" fC0="0.0000000000000000e+00" fC1="0.0000000000000000e+00" fC2="0.0000000000000000e+00" fC3="-3.9228388092699901e-01" fC4="3.8321335559412456e-01" fC5="-5.4435904016652603e-01" fC6="-4.1086778297073739e-01" fC7="9.2869490770019700e-03" IVar="7" Cut="-9.7754849120974541e-03" cType="0" res="-9.9000000000000000e+01" rms="0.0000000000000000e+00" purity="5.0313252210617065e-01" nType="0">
            <Node pos="l" depth="3" NCoef="0" IVar="-1" Cut="0.0000000000000000e+00" cType="1" res="-9.9000000000000000e+01" rms="0.0000000000000000e+00" purity="5.0931125879287720e-01" nType="1"/>
            <Node pos="r" depth="3" NCoef="0" IVar="-1" Cut="0.0000000000000000e+00" cType="1" res="-9.9000000000000000e+01" rms="0.0000000000000000e+00" purity="4.6760997176170349e-01" nType="-1"/>
          </Node>
          <Node pos="r" depth="2" NCoef="0" IVar="-1" Cut="0.0000000000000000e+00" cType="1" res="-9.9000000000000000e+01" rms="0.0000000000000000e+00" purity="4.3818062543869019e-01" nType="-1"/>
        </Node>
        <Node pos="r" depth="1" NCoef="8" fC0="1.4857652881473193e+01" fC1="0.0000000000000000e+00" fC2="0.0000000000000000e+00" fC3="-2.4674187292967518e+00" fC4="2.5354255556710652e+00" fC5="-2.3982172201730236e+00" fC6="4.9766150280881473e-02" fC7="-1.4504168503331551e+01" IVar="-1" Cut="-8.0219671130180359e-02" cType="0" res="-9.9000000000000000e+01" rms="0.0000000000000000e+00" purity="7.1712933480739594e-02" nType="-1"/>
      </Node>
    </BinaryTree>
    <BinaryTree type="DecisionTree" boostWeight="9.5463257754137706e-02" itree="14">
      <Node pos="s" depth="0" NCoef="0" IVar="0" Cut="9.9285715818405151e-01" cType="0" res="-9.9000000000000000e+01" rms="0.0000000000000000e+00" purity="4.5798230171203613e-01" nType="0">
        <Node pos="l" depth="1" NCoef="0" IVar="0" Cut="9.9863952398300171e-01" cType="0" res="-9.9000000000000000e+01" rms="0.0000000000000000e+00" purity="4.8631668090820312e-01" nType="0">
          <Node pos="l" depth="2" NCoef="0" IVar="0" Cut="9.9993526935577393e-01" cType="0" res="-9.9000000000000000e+01" rms="0.0000000000000000e+00" purity="4.9109447002410889e-01" nType="0">
            <Node pos="l" depth="3" NCoef="0" IVar="-1" Cut="0.0000000000000000e+00" cType="1" res="-9.9000000000000000e+01" rms="0.0000000000000000e+00" purity="5.0652432441711426e-01" nType="1"/>
            <Node pos="r" depth="3" NCoef="0" IVar="-1" Cut="0.0000000000000000e+00" cType="1" res="-9.9000000000000000e+01" rms="0.0000000000000000e+00" purity="4.7526761889457703e-01" nType="-1"/>
          </Node>
          <Node pos="r" depth="2" NCoef="0" IVar="-1" Cut="9.9753755331039429e-01" cType="1" res="-9.9000000000000000e+01" rms="0.0000000000000000e+00" purity="4.4039040803909302e-01" nType="-1"/>
        </Node>
        <Node pos="r" depth="1" NCoef="8" fC0="1.5431943078493026e+01" fC1="0.0000000000000000e+00" fC2="0.0000000000000000e+00" fC3="-2.5627914237112348e+00" fC4="2.6334269057702233e+00" fC5="-2.4909150810374787e+00" fC6="5.1689752377911340e-02" fC7="-1.5064795531963355e+01" IVar="-1" Cut="-8.3320386707782745e-02" cType="0" res="-9.9000000000000000e+01" rms="0.0000000000000000e+00" purity="7.7881418168544769e-02" nType="-1"/>
      </Node>
    </BinaryTree>
    <BinaryTree type="DecisionTree" boostWeight="8.6614259367069291e-02" itree="15">
      <Node pos="s" depth="0" NCoef="0" IVar="0" Cut="9.9285715818405151e-01" cType="0" res="-9.9000000000000000e+01" rms="0.0000000000000000e+00" purity="4.6129688620567322e-01" nType="0">
        <Node pos="l" depth="1" NCoef="0" IVar="5" Cut="-2.8329443186521530e-02" cType="0" res="-9.9000000000000000e+01" rms="0.0000000000000000e+00" purity="4.8826745152473450e-01" nType="0">
          <Node pos="l" depth="2" NCoef="0" IVar="0" Cut="9.9965989589691162e-01" cType="1" res="-9.9000000000000000e+01" rms="0.0000000000000000e+00" purity="4.9002379179000854e-01" nType="0">
            <Node pos="l" depth="3" NCoef="0" IVar="-1" Cut="0.0000000000000000e+00" cType="1" res="-9.9000000000000000e+01" rms="0.0000000000000000e+00" purity="5.0926840305328369e-01" nType="1"/>
            <Node pos="r" depth="3" NCoef="0" IVar="-1" Cut="0.0000000000000000e+00" cType="1" res="-9.9000000000000000e+01" rms="0.0000000000000000e+00" purity="4.8287042975425720e-01" nType="-1"/>
          </Node>
          <Node pos="r" depth="2" NCoef="0" IVar="-1" Cut="0.0000000000000000e+00" cType="1" res="-9.9000000000000000e+01" rms="0.0000000000000000e+00" purity="4.4695714116096497e-01" nType="-1"/>
        </Node>
        <Node pos="r" depth="1" NCoef="8" fC0="1.6061100522861683e+01" fC1="0.0000000000000000e+00" fC2="0.0000000000000000e+00" fC3="-2.6672759526065688e+00" fC4="2.7407912301094983e+00" fC5="-2.5924692248296495e+00" fC6="5.3797133952366294e-02" fC7="-1.5678984439258754e+01" IVar="-1" Cut="-8.6717344820499420e-02" cType="0" res="-9.9000000000000000e+01" rms="0.0000000000000000e+00" purity="8.5019409656524658e-02" nType="-1"/>
      </Node>
    </BinaryTree>
    <BinaryTree type="DecisionTree" boostWeight="8.0650784385914234e-02" itree="16">
      <Node pos="s" depth="0" NCoef="0" IVar="0" Cut="9.9285715818405151e-01" cType="0" res="-9.9000000000000000e+01" rms="0.0000000000000000e+00" purity="4.7233608365058899e-01" nType="0">
        <Node pos="l" depth="1" NCoef="0" IVar="0" Cut="9.9863952398300171e-01" cType="0" res="-9.9000000000000000e+01" rms="0.0000000000000000e+00" purity="4.9865573644638062e-01" nType="0">
          <Node pos="l" depth="2" NCoef="0" IVar="0" Cut="9.9974095821380615e-01" cType="1" res="-9.9000000000000000e+01" rms="0.0000000000000000e+00" purity="5.0444942712783813e-01" nType="0">
            <Node pos="l" depth="3" NCoef="0" IVar="-1" Cut="0.0000000000000000e+00" cType="1" res="-9.9000000000000000e+01" rms="0.0000000000000000e+00" purity="5.3100848197937012e-01" nType="1"/>
            <Node pos="r" depth="3" NCoef="0" IVar="-1" Cut="0.0000000000000000e+00" cType="1" res="-9.9000000000000000e+01" rms="0.0000000000000000e+00" purity="4.9609282612800598e-01" nType="-1"/>
          </Node>
          <Node pos="r" depth="2" NCoef="0" IVar="-1" Cut="9.9753755331039429e-01" cType="1" res="-9.9000000000000000e+01" rms="0.0000000000000000e+00" purity="4.4295537471771240e-01" nType="-1"/>
        </Node>
        <Node pos="r" depth="1" NCoef="8" fC0="1.6643913317345959e+01" fC1="0.0000000000000000e+00" fC2="0.0000000000000000e+00" fC3="-2.7640639994850509e+00" fC4="2.8402469425185779e+00" fC5="-2.6865427429887361e+00" fC6="5.5749282739938136e-02" fC7="-1.6247931300819516e+01" IVar="-1" Cut="-8.9864075183868408e-02" cType="0" res="-9.9000000000000000e+01" rms="0.0000000000000000e+00" purity="9.2003911733627319e-02" nType="-1"/>
      </Node>
    </BinaryTree>
    <BinaryTree type="DecisionTree" boostWeight="1.1010937629123321e-01" itree="17">
      <Node pos="s" depth="0" NCoef="0" IVar="0" Cut="9.9285715818405151e-01" cType="0" res="-9.9000000000000000e+01" rms="0.0000000000000000e+00" purity="4.8426505923271179e-01" nType="0">
        <Node pos="l" depth="1" NCoef="0" IVar="0" Cut="9.9965989589691162e-01" cType="0" res="-9.9000000000000000e+01" rms="0.0000000000000000e+00" purity="5.1008230447769165e-01" nType="0">
          <Node pos="l" depth="2" NCoef="0" IVar="0" Cut="9.9998378753662109e-01" cType="0" res="-9.9000000000000000e+01" rms="0.0000000000000000e+00" purity="5.2266746759414673e-01" nType="0">
            <Node pos="l" depth="3" NCoef="0" IVar="-1" Cut="0.0000000000000000e+00" cType="1" res="-9.9000000000000000e+01" rms="0.0000000000000000e+00" purity="5.6915402412414551e-01" nType="1"/>
            <Node pos="r" depth="3" NCoef="0" IVar="-1" Cut="0.0000000000000000e+00" cType="1" res="-9.9000000000000000e+01" rms="0.0000000000000000e+00" purity="4.9909517168998718e-01" nType="-1"/>
          </Node>
          <Node pos="r" depth="2" NCoef="0" IVar="5" Cut="-4.3811434879899025e-03" cType="0" res="-9.9000000000000000e+01" rms="0.0000000000000000e+00" purity="4.7493746876716614e-01" nType="0">
            <Node pos="l" depth="3" NCoef="0" IVar="-1" Cut="0.0000000000000000e+00" cType="1" res="-9.9000000000000000e+01" rms="0.0000000000000000e+00" purity="5.1884394884109497e-01" nType="1"/>
            <Node pos="r" depth="3" NCoef="0" IVar="-1" Cut="0.0000000000000000e+00" cType="1" res="-9.9000000000000000e+01" rms="0.0000000000000000e+00" purity="3.4323453903198242e-01" nType="-1"/>
          </Node>
        </Node>
        <Node pos="r" depth="1" NCoef="8" fC0="1.7195918544118356e+01" fC1="0.0000000000000000e+00" fC2="0.0000000000000000e+00" fC3="-2.8557358165896378e+00" fC4="2.9344454119848553e+00" fC5="-2.7756435218561482e+00" fC6="5.7598240674569250e-02" fC7="-1.6786803549871586e+01" IVar="-1" Cut="-9.2844471335411072e-02" cType="0" res="-9.9000000000000000e+01" rms="0.0000000000000000e+00" purity="9.8966747522354126e-02" nType="-1"/>
      </Node>
    </BinaryTree>
    <BinaryTree type="DecisionTree" boostWeight="1.5571200775379046e-01" itree="18">
      <Node pos="s" depth="0" NCoef="0" IVar="0" Cut="9.8809528350830078e-01" cType="0" res="-9.9000000000000000e+01" rms="0.0000000000000000e+00" purity="4.8873344063758850e-01" nType="0">
        <Node pos="l" depth="1" NCoef="0" IVar="0" Cut="9.9943321943283081e-01" cType="0" res="-9.9000000000000000e+01" rms="0.0000000000000000e+00" purity="5.1082617044448853e-01" nType="0">
          <Node pos="l" depth="2" NCoef="0" IVar="1" Cut="9.9926030635833740e-01" cType="0" res="-9.9000000000000000e+01" rms="0.0000000000000000e+00" purity="5.2721911668777466e-01" nType="0">
            <Node pos="l" depth="3" NCoef="0" IVar="-1" Cut="0.0000000000000000e+00" cType="1" res="-9.9000000000000000e+01" rms="0.0000000000000000e+00" purity="5.3208971023559570e-01" nType="1"/>
            <Node pos="r" depth="3" NCoef="0" IVar="-1" Cut="0.0000000000000000e+00" cType="1" res="-9.9000000000000000e+01" rms="0.0000000000000000e+00" purity="4.2350944876670837e-01" nType="-1"/>
          </Node>
          <Node pos="r" depth="2" NCoef="8" fC0="0.0000000000000000e+00" fC1="0.0000000000000000e+00" fC2="0.0000000000000000e+00" fC3="-2.6472544163311942e+00" fC4="2.9024146581588410e+00" fC5="9.4344695661023459e-01" fC6="-4.2840642959514991e-01" fC7="1.6483459343539668e-02" IVar="7" Cut="3.7707444280385971e-03" cType="0" res="-9.9000000000000000e+01" rms="0.0000000000000000e+00" purity="4.4582390785217285e-01" nType="0">
            <Node pos="l" depth="3" NCoef="0" IVar="-1" Cut="0.0000000000000000e+00" cType="1" res="-9.9000000000000000e+01" rms="0.0000000000000000e+00" purity="5.7781177759170532e-01" nType="1"/>
            <Node pos="r" depth="3" NCoef="0" IVar="-1" Cut="0.0000000000000000e+00" cType="1" res="-9.9000000000000000e+01" rms="0.0000000000000000e+00" purity="1.9760794937610626e-01" nType="-1"/>
          </Node>
        </Node>
        <Node pos="r" depth="1" NCoef="0" IVar="-1" Cut="0.0000000000000000e+00" cType="1" res="-9.9000000000000000e+01" rms="0.0000000000000000e+00" purity="6.6355653107166290e-02" nType="-1"/>
      </Node>
    </BinaryTree>
    <BinaryTree type="DecisionTree" boostWeight="1.1790849411081557e-01" itree="19">
      <Node pos="s" depth="0" NCoef="0" IVar="2" Cut="4.7599341996829025e-06" cType="1" res="-9.9000000000000000e+01" rms="0.0000000000000000e+00" purity="4.6108639240264893e-01" nType="0">
        <Node pos="l" depth="1" NCoef="0" IVar="2" Cut="4.5316937757888809e-07" cType="1" res="-9.9000000000000000e+01" rms="0.0000000000000000e+00" purity="4.7796517610549927e-01" nType="0">
          <Node pos="l" depth="2" NCoef="0" IVar="2" Cut="1.0788047433152315e-07" cType="1" res="-9.9000000000000000e+01" rms="0.0000000000000000e+00" purity="4.9777224659919739e-01" nType="0">
            <Node pos="l" depth="3" NCoef="0" IVar="-1" Cut="0.0000000000000000e+00" cType="1" res="-9.9000000000000000e+01" rms="0.0000000000000000e+00" purity="5.1236033439636230e-01" nType="1"/>
            <Node pos="r" depth="3" NCoef="0" IVar="-1" Cut="0.0000000000000000e+00" cType="1" res="-9.9000000000000000e+01" rms="0.0000000000000000e+00" purity="3.9859619736671448e-01" nType="-1"/>
          </Node>
          <Node pos="r" depth="2" NCoef="0" IVar="-1" Cut="0.0000000000000000e+00" cType="1" res="-9.9000000000000000e+01" rms="0.0000000000000000e+00" purity="9.4353318214416504e-02" nType="-1"/>
        </Node>
        <Node pos="r" depth="1" NCoef="0" IVar="-1" Cut="0.0000000000000000e+00" cType="1" res="-9.9000000000000000e+01" rms="0.0000000000000000e+00" purity="0.0000000000000000e+00" nType="-1"/>
      </Node>
    </BinaryTree>
    <BinaryTree type="DecisionTree" boostWeight="1.1440642969318986e-01" itree="20">
      <Node pos="s" depth="0" NCoef="0" IVar="-1" Cut="4.7599341996829025e-06" cType="1" res="-9.9000000000000000e+01" rms="0.0000000000000000e+00" purity="4.4304504990577698e-01" nType="-1"/>
    </BinaryTree>
    <BinaryTree type="DecisionTree" boostWeight="9.2555500185654241e-02" itree="21">
      <Node pos="s" depth="0" NCoef="0" IVar="2" Cut="4.7599341996829025e-06" cType="1" res="-9.9000000000000000e+01" rms="0.0000000000000000e+00" purity="4.7142955660820007e-01" nType="0">
        <Node pos="l" depth="1" NCoef="0" IVar="2" Cut="4.5316937757888809e-07" cType="1" res="-9.9000000000000000e+01" rms="0.0000000000000000e+00" purity="4.8689332604408264e-01" nType="0">
          <Node pos="l" depth="2" NCoef="0" IVar="2" Cut="1.7260875040392420e-07" cType="1" res="-9.9000000000000000e+01" rms="0.0000000000000000e+00" purity="5.0439506769180298e-01" nType="0">
            <Node pos="l" depth="3" NCoef="0" IVar="-1" Cut="0.0000000000000000e+00" cType="1" res="-9.9000000000000000e+01" rms="0.0000000000000000e+00" purity="5.1013851165771484e-01" nType="1"/>
            <Node pos="r" depth="3" NCoef="0" IVar="-1" Cut="0.0000000000000000e+00" cType="1" res="-9.9000000000000000e+01" rms="0.0000000000000000e+00" purity="4.1828855872154236e-01" nType="-1"/>
          </Node>
          <Node pos="r" depth="2" NCoef="0" IVar="-1" Cut="0.0000000000000000e+00" cType="1" res="-9.9000000000000000e+01" rms="0.0000000000000000e+00" purity="1.1616200953722000e-01" nType="-1"/>
        </Node>
        <Node pos="r" depth="1" NCoef="0" IVar="-1" Cut="0.0000000000000000e+00" cType="1" res="-9.9000000000000000e+01" rms="0.0000000000000000e+00" purity="0.0000000000000000e+00" nType="-1"/>
      </Node>
    </BinaryTree>
    <BinaryTree type="DecisionTree" boostWeight="1.0747186353428190e-01" itree="22">
      <Node pos="s" depth="0" NCoef="0" IVar="2" Cut="4.7599341996829025e-06" cType="1" res="-9.9000000000000000e+01" rms="0.0000000000000000e+00" purity="4.5427292585372925e-01" nType="0">
        <Node pos="l" depth="1" NCoef="0" IVar="2" Cut="4.5316937757888809e-07" cType="1" res="-9.9000000000000000e+01" rms="0.0000000000000000e+00" purity="4.6852600574493408e-01" nType="0">
          <Node pos="l" depth="2" NCoef="0" IVar="0" Cut="9.9761903285980225e-01" cType="1" res="-9.9000000000000000e+01" rms="0.0000000000000000e+00" purity="4.8414298892021179e-01" nType="0">
            <Node pos="l" depth="3" NCoef="0" IVar="-1" Cut="0.0000000000000000e+00" cType="1" res="-9.9000000000000000e+01" rms="0.0000000000000000e+00" purity="5.7541793584823608e-01" nType="1"/>
            <Node pos="r" depth="3" NCoef="0" IVar="-1" Cut="0.0000000000000000e+00" cType="1" res="-9.9000000000000000e+01" rms="0.0000000000000000e+00" purity="4.7875016927719116e-01" nType="-1"/>
          </Node>
          <Node pos="r" depth="2" NCoef="0" IVar="-1" Cut="0.0000000000000000e+00" cType="1" res="-9.9000000000000000e+01" rms="0.0000000000000000e+00" purity="1.2600727379322052e-01" nType="-1"/>
        </Node>
        <Node pos="r" depth="1" NCoef="0" IVar="-1" Cut="0.0000000000000000e+00" cType="1" res="-9.9000000000000000e+01" rms="0.0000000000000000e+00" purity="0.0000000000000000e+00" nType="-1"/>
      </Node>
    </BinaryTree>
    <BinaryTree type="DecisionTree" boostWeight="8.2133530181994124e-02" itree="23">
      <Node pos="s" depth="0" NCoef="0" IVar="2" Cut="4.7599341996829025e-06" cType="1" res="-9.9000000000000000e+01" rms="0.0000000000000000e+00" purity="4.7821268439292908e-01" nType="0">
        <Node pos="l" depth="1" NCoef="0" IVar="2" Cut="4.5316937757888809e-07" cType="1" res="-9.9000000000000000e+01" rms="0.0000000000000000e+00" purity="4.9247196316719055e-01" nType="0">
          <Node pos="l" depth="2" NCoef="0" IVar="2" Cut="2.3733703358175262e-07" cType="1" res="-9.9000000000000000e+01" rms="0.0000000000000000e+00" purity="5.0801110267639160e-01" nType="0">
            <Node pos="l" depth="3" NCoef="0" IVar="-1" Cut="0.0000000000000000e+00" cType="1" res="-9.9000000000000000e+01" rms="0.0000000000000000e+00" purity="5.1065897941589355e-01" nType="1"/>
            <Node pos="r" depth="3" NCoef="0" IVar="-1" Cut="0.0000000000000000e+00" cType="1" res="-9.9000000000000000e+01" rms="0.0000000000000000e+00" purity="4.2903202772140503e-01" nType="-1"/>
          </Node>
          <Node pos="r" depth="2" NCoef="0" IVar="-1" Cut="0.0000000000000000e+00" cType="1" res="-9.9000000000000000e+01" rms="0.0000000000000000e+00" purity="1.3832639157772064e-01" nType="-1"/>
        </Node>
        <Node pos="r" depth="1" NCoef="0" IVar="-1" Cut="0.0000000000000000e+00" cType="1" res="-9.9000000000000000e+01" rms="0.0000000000000000e+00" purity="0.0000000000000000e+00" nType="-1"/>
      </Node>
    </BinaryTree>
    <BinaryTree type="DecisionTree" boostWeight="7.6822642401517871e-02" itree="24">
      <Node pos="s" depth="0" NCoef="0" IVar="-1" Cut="4.7599341996829025e-06" cType="1" res="-9.9000000000000000e+01" rms="0.0000000000000000e+00" purity="4.6166408061981201e-01" nType="-1"/>
    </BinaryTree>
    <BinaryTree type="DecisionTree" boostWeight="7.3401278473116713e-02" itree="25">
      <Node pos="s" depth="0" NCoef="0" IVar="2" Cut="4.7599341996829025e-06" cType="1" res="-9.9000000000000000e+01" rms="0.0000000000000000e+00" purity="4.8080375790596008e-01" nType="0">
        <Node pos="l" depth="1" NCoef="0" IVar="2" Cut="6.7975406636833213e-07" cType="1" res="-9.9000000000000000e+01" rms="0.0000000000000000e+00" purity="4.9407932162284851e-01" nType="0">
          <Node pos="l" depth="2" NCoef="0" IVar="2" Cut="2.2650145581337711e-07" cType="1" res="-9.9000000000000000e+01" rms="0.0000000000000000e+00" purity="5.0627797842025757e-01" nType="0">
            <Node pos="l" depth="3" NCoef="0" IVar="-1" Cut="0.0000000000000000e+00" cType="1" res="-9.9000000000000000e+01" rms="0.0000000000000000e+00" purity="5.0967717170715332e-01" nType="1"/>
            <Node pos="r" depth="3" NCoef="0" IVar="-1" Cut="0.0000000000000000e+00" cType="1" res="-9.9000000000000000e+01" rms="0.0000000000000000e+00" purity="4.3555673956871033e-01" nType="-1"/>
          </Node>
          <Node pos="r" depth="2" NCoef="0" IVar="-1" Cut="0.0000000000000000e+00" cType="1" res="-9.9000000000000000e+01" rms="0.0000000000000000e+00" purity="9.4157643616199493e-02" nType="-1"/>
        </Node>
        <Node pos="r" depth="1" NCoef="0" IVar="-1" Cut="0.0000000000000000e+00" cType="1" res="-9.9000000000000000e+01" rms="0.0000000000000000e+00" purity="0.0000000000000000e+00" nType="-1"/>
      </Node>
    </BinaryTree>
    <BinaryTree type="DecisionTree" boostWeight="6.9137022376590224e-02" itree="26">
      <Node pos="s" depth="0" NCoef="0" IVar="2" Cut="4.7599341996829025e-06" cType="1" res="-9.9000000000000000e+01" rms="0.0000000000000000e+00" purity="4.6600133180618286e-01" nType="0">
        <Node pos="l" depth="1" NCoef="0" IVar="2" Cut="6.7975406636833213e-07" cType="1" res="-9.9000000000000000e+01" rms="0.0000000000000000e+00" purity="4.7841787338256836e-01" nType="0">
          <Node pos="l" depth="2" NCoef="0" IVar="2" Cut="3.2357348800360342e-08" cType="1" res="-9.9000000000000000e+01" rms="0.0000000000000000e+00" purity="4.8960894346237183e-01" nType="0">
            <Node pos="l" depth="3" NCoef="0" IVar="-1" Cut="0.0000000000000000e+00" cType="1" res="-9.9000000000000000e+01" rms="0.0000000000000000e+00" purity="5.0045108795166016e-01" nType="1"/>
            <Node pos="r" depth="3" NCoef="0" IVar="-1" Cut="0.0000000000000000e+00" cType="1" res="-9.9000000000000000e+01" rms="0.0000000000000000e+00" purity="4.7312626242637634e-01" nType="-1"/>
          </Node>
          <Node pos="r" depth="2" NCoef="0" IVar="-1" Cut="0.0000000000000000e+00" cType="1" res="-9.9000000000000000e+01" rms="0.0000000000000000e+00" purity="1.0060742497444153e-01" nType="-1"/>
        </Node>
        <Node pos="r" depth="1" NCoef="0" IVar="-1" Cut="0.0000000000000000e+00" cType="1" res="-9.9000000000000000e+01" rms="0.0000000000000000e+00" purity="0.0000000000000000e+00" nType="-1"/>
      </Node>
    </BinaryTree>
    <BinaryTree type="DecisionTree" boostWeight="7.3184754477247205e-02" itree="27">
      <Node pos="s" depth="0" NCoef="0" IVar="-1" Cut="4.7599341996829025e-06" cType="1" res="-9.9000000000000000e+01" rms="0.0000000000000000e+00" purity="4.6347281336784363e-01" nType="-1"/>
    </BinaryTree>
    <BinaryTree type="DecisionTree" boostWeight="5.7809857206413871e-02" itree="28">
      <Node pos="s" depth="0" NCoef="0" IVar="0" Cut="9.8571431636810303e-01" cType="0" res="-9.9000000000000000e+01" rms="0.0000000000000000e+00" purity="4.8171195387840271e-01" nType="0">
        <Node pos="l" depth="1" NCoef="0" IVar="0" Cut="9.9591851234436035e-01" cType="0" res="-9.9000000000000000e+01" rms="0.0000000000000000e+00" purity="4.9532967805862427e-01" nType="0">
          <Node pos="l" depth="2" NCoef="0" IVar="0" Cut="9.9961131811141968e-01" cType="0" res="-9.9000000000000000e+01" rms="0.0000000000000000e+00" purity="4.9840357899665833e-01" nType="0">
            <Node pos="l" depth="3" NCoef="0" IVar="-1" Cut="0.0000000000000000e+00" cType="1" res="-9.9000000000000000e+01" rms="0.0000000000000000e+00" purity="5.0720578432083130e-01" nType="1"/>
            <Node pos="r" depth="3" NCoef="0" IVar="-1" Cut="0.0000000000000000e+00" cType="1" res="-9.9000000000000000e+01" rms="0.0000000000000000e+00" purity="4.6695166826248169e-01" nType="-1"/>
          </Node>
          <Node pos="r" depth="2" NCoef="0" IVar="-1" Cut="0.0000000000000000e+00" cType="1" res="-9.9000000000000000e+01" rms="0.0000000000000000e+00" purity="3.9272275567054749e-01" nType="-1"/>
        </Node>
        <Node pos="r" depth="1" NCoef="0" IVar="-1" Cut="0.0000000000000000e+00" cType="1" res="-9.9000000000000000e+01" rms="0.0000000000000000e+00" purity="6.7449703812599182e-02" nType="-1"/>
      </Node>
    </BinaryTree>
    <BinaryTree type="DecisionTree" boostWeight="6.0359438982341758e-02" itree="29">
      <Node pos="s" depth="0" NCoef="0" IVar="0" Cut="9.8571431636810303e-01" cType="0" res="-9.9000000000000000e+01" rms="0.0000000000000000e+00" purity="4.7489479184150696e-01" nType="0">
        <Node pos="l" depth="1" NCoef="0" IVar="0" Cut="9.9591851234436035e-01" cType="0" res="-9.9000000000000000e+01" rms="0.0000000000000000e+00" purity="4.8784571886062622e-01" nType="0">
          <Node pos="l" depth="2" NCoef="0" IVar="0" Cut="9.9980562925338745e-01" cType="1" res="-9.9000000000000000e+01" rms="0.0000000000000000e+00" purity="4.9026665091514587e-01" nType="0">
            <Node pos="l" depth="3" NCoef="0" IVar="-1" Cut="0.0000000000000000e+00" cType="1" res="-9.9000000000000000e+01" rms="0.0000000000000000e+00" purity="5.0803136825561523e-01" nType="1"/>
            <Node pos="r" depth="3" NCoef="0" IVar="-1" Cut="0.0000000000000000e+00" cType="1" res="-9.9000000000000000e+01" rms="0.0000000000000000e+00" purity="4.8138377070426941e-01" nType="-1"/>
          </Node>
          <Node pos="r" depth="2" NCoef="0" IVar="-1" Cut="0.0000000000000000e+00" cType="1" res="-9.9000000000000000e+01" rms="0.0000000000000000e+00" purity="4.0659207105636597e-01" nType="-1"/>
        </Node>
        <Node pos="r" depth="1" NCoef="0" IVar="-1" Cut="0.0000000000000000e+00" cType="1" res="-9.9000000000000000e+01" rms="0.0000000000000000e+00" purity="7.1178145706653595e-02" nType="-1"/>
      </Node>
    </BinaryTree>
    <BinaryTree type="DecisionTree" boostWeight="5.4117389299249197e-02" itree="30">
      <Node pos="s" depth="0" NCoef="0" IVar="0" Cut="9.8571431636810303e-01" cType="0" res="-9.9000000000000000e+01" rms="0.0000000000000000e+00" purity="4.8048186302185059e-01" nType="0">
        <Node pos="l" depth="1" NCoef="0" IVar="0" Cut="9.9931973218917847e-01" cType="0" res="-9.9000000000000000e+01" rms="0.0000000000000000e+00" purity="4.9315756559371948e-01" nType="0">
          <Node pos="l" depth="2" NCoef="0" IVar="0" Cut="9.9961131811141968e-01" cType="0" res="-9.9000000000000000e+01" rms="0.0000000000000000e+00" purity="4.9889755249023438e-01" nType="0">
            <Node pos="l" depth="3" NCoef="0" IVar="-1" Cut="0.0000000000000000e+00" cType="1" res="-9.9000000000000000e+01" rms="0.0000000000000000e+00" purity="5.0340789556503296e-01" nType="1"/>
            <Node pos="r" depth="3" NCoef="0" IVar="-1" Cut="0.0000000000000000e+00" cType="1" res="-9.9000000000000000e+01" rms="0.0000000000000000e+00" purity="4.5291543006896973e-01" nType="-1"/>
          </Node>
          <Node pos="r" depth="2" NCoef="0" IVar="5" Cut="2.6086317375302315e-03" cType="1" res="-9.9000000000000000e+01" rms="0.0000000000000000e+00" purity="4.6451333165168762e-01" nType="0">
            <Node pos="l" depth="3" NCoef="0" IVar="-1" Cut="0.0000000000000000e+00" cType="1" res="-9.9000000000000000e+01" rms="0.0000000000000000e+00" purity="5.1129245758056641e-01" nType="1"/>
            <Node pos="r" depth="3" NCoef="0" IVar="-1" Cut="0.0000000000000000e+00" cType="1" res="-9.9000000000000000e+01" rms="0.0000000000000000e+00" purity="3.6330777406692505e-01" nType="-1"/>
          </Node>
        </Node>
        <Node pos="r" depth="1" NCoef="0" IVar="-1" Cut="0.0000000000000000e+00" cType="1" res="-9.9000000000000000e+01" rms="0.0000000000000000e+00" purity="7.5273372232913971e-02" nType="-1"/>
      </Node>
    </BinaryTree>
    <BinaryTree type="DecisionTree" boostWeight="5.7924045352552758e-02" itree="31">
      <Node pos="s" depth="0" NCoef="0" IVar="-1" Cut="9.8571431636810303e-01" cType="0" res="-9.9000000000000000e+01" rms="0.0000000000000000e+00" purity="4.7107031941413879e-01" nType="-1"/>
    </BinaryTree>
    <BinaryTree type="DecisionTree" boostWeight="3.4312449656613599e-02" itree="32">
      <Node pos="s" depth="0" NCoef="0" IVar="0" Cut="9.8571431636810303e-01" cType="0" res="-9.9000000000000000e+01" rms="0.0000000000000000e+00" purity="4.8552304506301880e-01" nType="0">
        <Node pos="l" depth="1" NCoef="0" IVar="0" Cut="9.9591851234436035e-01" cType="0" res="-9.9000000000000000e+01" rms="0.0000000000000000e+00" purity="4.9753329157829285e-01" nType="0">
          <Node pos="l" depth="2" NCoef="0" IVar="5" Cut="-2.8329443186521530e-02" cType="0" res="-9.9000000000000000e+01" rms="0.0000000000000000e+00" purity="4.9954831600189209e-01" nType="0">
            <Node pos="l" depth="3" NCoef="0" IVar="-1" Cut="0.0000000000000000e+00" cType="1" res="-9.9000000000000000e+01" rms="0.0000000000000000e+00" purity="5.0147777795791626e-01" nType="1"/>
            <Node pos="r" depth="3" NCoef="0" IVar="-1" Cut="0.0000000000000000e+00" cType="1" res="-9.9000000000000000e+01" rms="0.0000000000000000e+00" purity="4.5479375123977661e-01" nType="-1"/>
          </Node>
          <Node pos="r" depth="2" NCoef="0" IVar="-1" Cut="0.0000000000000000e+00" cType="1" res="-9.9000000000000000e+01" rms="0.0000000000000000e+00" purity="4.2902499437332153e-01" nType="-1"/>
        </Node>
        <Node pos="r" depth="1" NCoef="0" IVar="-1" Cut="0.0000000000000000e+00" cType="1" res="-9.9000000000000000e+01" rms="0.0000000000000000e+00" purity="8.3452962338924408e-02" nType="-1"/>
      </Node>
    </BinaryTree>
    <BinaryTree type="DecisionTree" boostWeight="6.2607684995121704e-02" itree="33">
      <Node pos="s" depth="0" NCoef="0" IVar="0" Cut="9.8571431636810303e-01" cType="0" res="-9.9000000000000000e+01" rms="0.0000000000000000e+00" purity="4.7857540845870972e-01" nType="0">
        <Node pos="l" depth="1" NCoef="0" IVar="0" Cut="9.9931973218917847e-01" cType="0" res="-9.9000000000000000e+01" rms="0.0000000000000000e+00" purity="4.9013313651084900e-01" nType="0">
          <Node pos="l" depth="2" NCoef="0" IVar="0" Cut="9.9977326393127441e-01" cType="1" res="-9.9000000000000000e+01" rms="0.0000000000000000e+00" purity="4.9447464942932129e-01" nType="0">
            <Node pos="l" depth="3" NCoef="0" IVar="-1" Cut="0.0000000000000000e+00" cType="1" res="-9.9000000000000000e+01" rms="0.0000000000000000e+00" purity="5.2649205923080444e-01" nType="1"/>
            <Node pos="r" depth="3" NCoef="0" IVar="-1" Cut="0.0000000000000000e+00" cType="1" res="-9.9000000000000000e+01" rms="0.0000000000000000e+00" purity="4.8682290315628052e-01" nType="-1"/>
          </Node>
          <Node pos="r" depth="2" NCoef="0" IVar="5" Cut="2.6086317375302315e-03" cType="1" res="-9.9000000000000000e+01" rms="0.0000000000000000e+00" purity="4.6837791800498962e-01" nType="0">
            <Node pos="l" depth="3" NCoef="0" IVar="-1" Cut="0.0000000000000000e+00" cType="1" res="-9.9000000000000000e+01" rms="0.0000000000000000e+00" purity="5.0704109668731689e-01" nType="1"/>
            <Node pos="r" depth="3" NCoef="0" IVar="-1" Cut="0.0000000000000000e+00" cType="1" res="-9.9000000000000000e+01" rms="0.0000000000000000e+00" purity="3.8371011614799500e-01" nType="-1"/>
          </Node>
        </Node>
        <Node pos="r" depth="1" NCoef="0" IVar="-1" Cut="0.0000000000000000e+00" cType="1" res="-9.9000000000000000e+01" rms="0.0000000000000000e+00" purity="8.6115263402462006e-02" nType="-1"/>
      </Node>
    </BinaryTree>
    <BinaryTree type="DecisionTree" boostWeight="5.4116630024767146e-02" itree="34">
      <Node pos="s" depth="0" NCoef="0" IVar="0" Cut="9.8571431636810303e-01" cType="0" res="-9.9000000000000000e+01" rms="0.0000000000000000e+00" purity="4.8583465814590454e-01" nType="0">
        <Node pos="l" depth="1" NCoef="0" IVar="0" Cut="9.9931973218917847e-01" cType="0" res="-9.9000000000000000e+01" rms="0.0000000000000000e+00" purity="4.9717041850090027e-01" nType="0">
          <Node pos="l" depth="2" NCoef="0" IVar="0" Cut="9.9961131811141968e-01" cType="0" res="-9.9000000000000000e+01" rms="0.0000000000000000e+00" purity="5.0408923625946045e-01" nType="0">
            <Node pos="l" depth="3" NCoef="0" IVar="-1" Cut="0.0000000000000000e+00" cType="1" res="-9.9000000000000000e+01" rms="0.0000000000000000e+00" purity="5.0871479511260986e-01" nType="1"/>
            <Node pos="r" depth="3" NCoef="0" IVar="-1" Cut="0.0000000000000000e+00" cType="1" res="-9.9000000000000000e+01" rms="0.0000000000000000e+00" purity="4.5691162347793579e-01" nType="-1"/>
          </Node>
          <Node pos="r" depth="2" NCoef="0" IVar="-1" Cut="2.6086317375302315e-03" cType="1" res="-9.9000000000000000e+01" rms="0.0000000000000000e+00" purity="4.6244433522224426e-01" nType="-1"/>
        </Node>
        <Node pos="r" depth="1" NCoef="0" IVar="-1" Cut="0.0000000000000000e+00" cType="1" res="-9.9000000000000000e+01" rms="0.0000000000000000e+00" purity="9.1171830892562866e-02" nType="-1"/>
      </Node>
    </BinaryTree>
    <BinaryTree type="DecisionTree" boostWeight="4.7177927373299816e-02" itree="35">
      <Node pos="s" depth="0" NCoef="0" IVar="0" Cut="9.8571431636810303e-01" cType="0" res="-9.9000000000000000e+01" rms="0.0000000000000000e+00" purity="4.7936075925827026e-01" nType="0">
        <Node pos="l" depth="1" NCoef="0" IVar="0" Cut="9.9591851234436035e-01" cType="0" res="-9.9000000000000000e+01" rms="0.0000000000000000e+00" purity="4.9014452099800110e-01" nType="0">
          <Node pos="l" depth="2" NCoef="0" IVar="0" Cut="9.9766790866851807e-01" cType="1" res="-9.9000000000000000e+01" rms="0.0000000000000000e+00" purity="4.9151036143302917e-01" nType="0">
            <Node pos="l" depth="3" NCoef="0" IVar="-1" Cut="0.0000000000000000e+00" cType="1" res="-9.9000000000000000e+01" rms="0.0000000000000000e+00" purity="5.4814928770065308e-01" nType="1"/>
            <Node pos="r" depth="3" NCoef="0" IVar="-1" Cut="0.0000000000000000e+00" cType="1" res="-9.9000000000000000e+01" rms="0.0000000000000000e+00" purity="4.8962482810020447e-01" nType="-1"/>
          </Node>
          <Node pos="r" depth="2" NCoef="0" IVar="-1" Cut="0.0000000000000000e+00" cType="1" res="-9.9000000000000000e+01" rms="0.0000000000000000e+00" purity="4.4326117634773254e-01" nType="-1"/>
        </Node>
        <Node pos="r" depth="1" NCoef="0" IVar="-1" Cut="0.0000000000000000e+00" cType="1" res="-9.9000000000000000e+01" rms="0.0000000000000000e+00" purity="9.5756210386753082e-02" nType="-1"/>
      </Node>
    </BinaryTree>
    <BinaryTree type="DecisionTree" boostWeight="3.6293396200847046e-02" itree="36">
      <Node pos="s" depth="0" NCoef="0" IVar="0" Cut="9.8571431636810303e-01" cType="0" res="-9.9000000000000000e+01" rms="0.0000000000000000e+00" purity="4.9042424559593201e-01" nType="0">
        <Node pos="l" depth="1" NCoef="0" IVar="0" Cut="9.9863952398300171e-01" cType="0" res="-9.9000000000000000e+01" rms="0.0000000000000000e+00" purity="5.0119924545288086e-01" nType="0">
          <Node pos="l" depth="2" NCoef="0" IVar="5" Cut="4.5744813978672028e-03" cType="0" res="-9.9000000000000000e+01" rms="0.0000000000000000e+00" purity="5.0422137975692749e-01" nType="0">
            <Node pos="l" depth="3" NCoef="0" IVar="-1" Cut="0.0000000000000000e+00" cType="1" res="-9.9000000000000000e+01" rms="0.0000000000000000e+00" purity="5.1389473676681519e-01" nType="1"/>
            <Node pos="r" depth="3" NCoef="0" IVar="-1" Cut="0.0000000000000000e+00" cType="1" res="-9.9000000000000000e+01" rms="0.0000000000000000e+00" purity="4.9901181459426880e-01" nType="-1"/>
          </Node>
          <Node pos="r" depth="2" NCoef="0" IVar="-1" Cut="9.9740785360336304e-01" cType="1" res="-9.9000000000000000e+01" rms="0.0000000000000000e+00" purity="4.7254383563995361e-01" nType="-1"/>
        </Node>
        <Node pos="r" depth="1" NCoef="0" IVar="-1" Cut="0.0000000000000000e+00" cType="1" res="-9.9000000000000000e+01" rms="0.0000000000000000e+00" purity="9.9919840693473816e-02" nType="-1"/>
      </Node>
    </BinaryTree>
    <BinaryTree type="DecisionTree" boostWeight="3.7675045504025853e-02" itree="37">
      <Node pos="s" depth="0" NCoef="0" IVar="0" Cut="9.8571431636810303e-01" cType="0" res="-9.9000000000000000e+01" rms="0.0000000000000000e+00" purity="4.9390155076980591e-01" nType="0">
        <Node pos="l" depth="1" NCoef="0" IVar="0" Cut="9.9863952398300171e-01" cType="0" res="-9.9000000000000000e+01" rms="0.0000000000000000e+00" purity="5.0452744960784912e-01" nType="0">
          <Node pos="l" depth="2" NCoef="0" IVar="-1" Cut="-1.1877480894327164e-02" cType="1" res="-9.9000000000000000e+01" rms="0.0000000000000000e+00" purity="5.0694382190704346e-01" nType="1"/>
          <Node pos="r" depth="2" NCoef="0" IVar="0" Cut="9.9740785360336304e-01" cType="1" res="-9.9000000000000000e+01" rms="0.0000000000000000e+00" purity="4.8159784078598022e-01" nType="0">
            <Node pos="l" depth="3" NCoef="0" IVar="-1" Cut="0.0000000000000000e+00" cType="1" res="-9.9000000000000000e+01" rms="0.0000000000000000e+00" purity="5.0486695766448975e-01" nType="1"/>
            <Node pos="r" depth="3" NCoef="0" IVar="-1" Cut="0.0000000000000000e+00" cType="1" res="-9.9000000000000000e+01" rms="0.0000000000000000e+00" purity="4.5286661386489868e-01" nType="-1"/>
          </Node>
        </Node>
        <Node pos="r" depth="1" NCoef="0" IVar="-1" Cut="0.0000000000000000e+00" cType="1" res="-9.9000000000000000e+01" rms="0.0000000000000000e+00" purity="1.0323164612054825e-01" nType="-1"/>
      </Node>
    </BinaryTree>
    <BinaryTree type="DecisionTree" boostWeight="3.3400512402862986e-02" itree="38">
      <Node pos="s" depth="0" NCoef="0" IVar="0" Cut="9.8571431636810303e-01" cType="0" res="-9.9000000000000000e+01" rms="0.0000000000000000e+00" purity="4.8575478792190552e-01" nType="0">
        <Node pos="l" depth="1" NCoef="0" IVar="0" Cut="9.9591851234436035e-01" cType="0" res="-9.9000000000000000e+01" rms="0.0000000000000000e+00" purity="4.9591201543807983e-01" nType="0">
          <Node pos="l" depth="2" NCoef="0" IVar="0" Cut="9.9766790866851807e-01" cType="1" res="-9.9000000000000000e+01" rms="0.0000000000000000e+00" purity="4.9711367487907410e-01" nType="0">
            <Node pos="l" depth="3" NCoef="0" IVar="-1" Cut="0.0000000000000000e+00" cType="1" res="-9.9000000000000000e+01" rms="0.0000000000000000e+00" purity="5.4020434617996216e-01" nType="1"/>
            <Node pos="r" depth="3" NCoef="0" IVar="-1" Cut="0.0000000000000000e+00" cType="1" res="-9.9000000000000000e+01" rms="0.0000000000000000e+00" purity="4.9568089842796326e-01" nType="-1"/>
          </Node>
          <Node pos="r" depth="2" NCoef="0" IVar="-1" Cut="0.0000000000000000e+00" cType="1" res="-9.9000000000000000e+01" rms="0.0000000000000000e+00" purity="4.5459026098251343e-01" nType="-1"/>
        </Node>
        <Node pos="r" depth="1" NCoef="0" IVar="-1" Cut="0.0000000000000000e+00" cType="1" res="-9.9000000000000000e+01" rms="0.0000000000000000e+00" purity="1.0677190870046616e-01" nType="-1"/>
      </Node>
    </BinaryTree>
    <BinaryTree type="DecisionTree" boostWeight="3.7417011388955805e-02" itree="39">
      <Node pos="s" depth="0" NCoef="0" IVar="0" Cut="9.8571431636810303e-01" cType="0" res="-9.9000000000000000e+01" rms="0.0000000000000000e+00" purity="4.9359199404716492e-01" nType="0">
        <Node pos="l" depth="1" NCoef="0" IVar="0" Cut="9.9591851234436035e-01" cType="0" res="-9.9000000000000000e+01" rms="0.0000000000000000e+00" purity="5.0374001264572144e-01" nType="0">
          <Node pos="l" depth="2" NCoef="0" IVar="0" Cut="9.9961131811141968e-01" cType="0" res="-9.9000000000000000e+01" rms="0.0000000000000000e+00" purity="5.0492656230926514e-01" nType="0">
            <Node pos="l" depth="3" NCoef="0" IVar="-1" Cut="0.0000000000000000e+00" cType="1" res="-9.9000000000000000e+01" rms="0.0000000000000000e+00" purity="5.0829923152923584e-01" nType="1"/>
            <Node pos="r" depth="3" NCoef="0" IVar="-1" Cut="0.0000000000000000e+00" cType="1" res="-9.9000000000000000e+01" rms="0.0000000000000000e+00" purity="4.9281376600265503e-01" nType="-1"/>
          </Node>
          <Node pos="r" depth="2" NCoef="0" IVar="-1" Cut="0.0000000000000000e+00" cType="1" res="-9.9000000000000000e+01" rms="0.0000000000000000e+00" purity="4.6288329362869263e-01" nType="-1"/>
        </Node>
        <Node pos="r" depth="1" NCoef="0" IVar="-1" Cut="0.0000000000000000e+00" cType="1" res="-9.9000000000000000e+01" rms="0.0000000000000000e+00" purity="1.0999946296215057e-01" nType="-1"/>
      </Node>
    </BinaryTree>
    <BinaryTree type="DecisionTree" boostWeight="4.7406106682900066e-02" itree="40">
      <Node pos="s" depth="0" NCoef="0" IVar="0" Cut="9.8571431636810303e-01" cType="0" res="-9.9000000000000000e+01" rms="0.0000000000000000e+00" purity="4.8908475041389465e-01" nType="0">
        <Node pos="l" depth="1" NCoef="0" IVar="5" Cut="4.5744813978672028e-03" cType="1" res="-9.9000000000000000e+01" rms="0.0000000000000000e+00" purity="4.9887356162071228e-01" nType="0">
          <Node pos="l" depth="2" NCoef="0" IVar="0" Cut="9.9931973218917847e-01" cType="1" res="-9.9000000000000000e+01" rms="0.0000000000000000e+00" purity="5.0402742624282837e-01" nType="0">
            <Node pos="l" depth="3" NCoef="0" IVar="-1" Cut="0.0000000000000000e+00" cType="1" res="-9.9000000000000000e+01" rms="0.0000000000000000e+00" purity="5.3111559152603149e-01" nType="1"/>
            <Node pos="r" depth="3" NCoef="0" IVar="-1" Cut="0.0000000000000000e+00" cType="1" res="-9.9000000000000000e+01" rms="0.0000000000000000e+00" purity="4.9730628728866577e-01" nType="-1"/>
          </Node>
          <Node pos="r" depth="2" NCoef="8" fC0="4.2999823544008947e+01" fC1="1.0323698326755073e+00" fC2="0.0000000000000000e+00" fC3="-3.2023817534952209e-01" fC4="2.4456248262166211e-01" fC5="0.0000000000000000e+00" fC6="8.4363364847576627e-01" fC7="-4.3981566285289283e+01" IVar="7" Cut="-1.0647203773260117e-02" cType="0" res="-9.9000000000000000e+01" rms="0.0000000000000000e+00" purity="4.8861441016197205e-01" nType="0">
            <Node pos="l" depth="3" NCoef="0" IVar="-1" Cut="0.0000000000000000e+00" cType="1" res="-9.9000000000000000e+01" rms="0.0000000000000000e+00" purity="5.0941640138626099e-01" nType="1"/>
            <Node pos="r" depth="3" NCoef="0" IVar="-1" Cut="0.0000000000000000e+00" cType="1" res="-9.9000000000000000e+01" rms="0.0000000000000000e+00" purity="4.1772836446762085e-01" nType="-1"/>
          </Node>
        </Node>
        <Node pos="r" depth="1" NCoef="0" IVar="-1" Cut="0.0000000000000000e+00" cType="1" res="-9.9000000000000000e+01" rms="0.0000000000000000e+00" purity="1.1371637880802155e-01" nType="-1"/>
      </Node>
    </BinaryTree>
    <BinaryTree type="DecisionTree" boostWeight="4.5765421380378944e-02" itree="41">
      <Node pos="s" depth="0" NCoef="0" IVar="0" Cut="9.8809528350830078e-01" cType="0" res="-9.9000000000000000e+01" rms="0.0000000000000000e+00" purity="4.9189805984497070e-01" nType="0">
        <Node pos="l" depth="1" NCoef="0" IVar="5" Cut="4.5744813978672028e-03" cType="1" res="-9.9000000000000000e+01" rms="0.0000000000000000e+00" purity="5.0186151266098022e-01" nType="0">
          <Node pos="l" depth="2" NCoef="0" IVar="-1" Cut="9.9716603755950928e-01" cType="1" res="-9.9000000000000000e+01" rms="0.0000000000000000e+00" purity="5.1141917705535889e-01" nType="1"/>
          <Node pos="r" depth="2" NCoef="8" fC0="3.7528955196640524e+01" fC1="2.1297941679826873e+00" fC2="0.0000000000000000e+00" fC3="-2.4784506587322871e-01" fC4="1.6501931016234830e-01" fC5="0.0000000000000000e+00" fC6="6.4464870885749581e-01" fC7="-3.9617667240437875e+01" IVar="-1" Cut="-6.0023046098649502e-03" cType="0" res="-9.9000000000000000e+01" rms="0.0000000000000000e+00" purity="4.8286947607994080e-01" nType="-1"/>
        </Node>
        <Node pos="r" depth="1" NCoef="0" IVar="-1" Cut="0.0000000000000000e+00" cType="1" res="-9.9000000000000000e+01" rms="0.0000000000000000e+00" purity="1.4812760055065155e-01" nType="-1"/>
      </Node>
    </BinaryTree>
    <BinaryTree type="DecisionTree" boostWeight="3.4736422098896234e-02" itree="42">
      <Node pos="s" depth="0" NCoef="0" IVar="0" Cut="9.8809528350830078e-01" cType="0" res="-9.9000000000000000e+01" rms="0.0000000000000000e+00" purity="4.8853451013565063e-01" nType="0">
        <Node pos="l" depth="1" NCoef="0" IVar="0" Cut="9.9886643886566162e-01" cType="0" res="-9.9000000000000000e+01" rms="0.0000000000000000e+00" purity="4.9808013439178467e-01" nType="0">
          <Node pos="l" depth="2" NCoef="0" IVar="5" Cut="-1.1877480894327164e-02" cType="1" res="-9.9000000000000000e+01" rms="0.0000000000000000e+00" purity="4.9984136223793030e-01" nType="0">
            <Node pos="l" depth="3" NCoef="0" IVar="-1" Cut="0.0000000000000000e+00" cType="1" res="-9.9000000000000000e+01" rms="0.0000000000000000e+00" purity="5.1935684680938721e-01" nType="1"/>
            <Node pos="r" depth="3" NCoef="0" IVar="-1" Cut="0.0000000000000000e+00" cType="1" res="-9.9000000000000000e+01" rms="0.0000000000000000e+00" purity="4.9568149447441101e-01" nType="-1"/>
          </Node>
          <Node pos="r" depth="2" NCoef="0" IVar="-1" Cut="9.9732792377471924e-01" cType="1" res="-9.9000000000000000e+01" rms="0.0000000000000000e+00" purity="4.8361185193061829e-01" nType="-1"/>
        </Node>
        <Node pos="r" depth="1" NCoef="0" IVar="-1" Cut="0.0000000000000000e+00" cType="1" res="-9.9000000000000000e+01" rms="0.0000000000000000e+00" purity="1.5399603545665741e-01" nType="-1"/>
      </Node>
    </BinaryTree>
    <BinaryTree type="DecisionTree" boostWeight="3.7963151052762073e-02" itree="43">
      <Node pos="s" depth="0" NCoef="0" IVar="0" Cut="9.8809528350830078e-01" cType="0" res="-9.9000000000000000e+01" rms="0.0000000000000000e+00" purity="4.9456971883773804e-01" nType="0">
        <Node pos="l" depth="1" NCoef="0" IVar="5" Cut="-2.8329443186521530e-02" cType="0" res="-9.9000000000000000e+01" rms="0.0000000000000000e+00" purity="5.0404423475265503e-01" nType="0">
          <Node pos="l" depth="2" NCoef="0" IVar="5" Cut="2.8079263865947723e-02" cType="1" res="-9.9000000000000000e+01" rms="0.0000000000000000e+00" purity="5.0566190481185913e-01" nType="0">
            <Node pos="l" depth="3" NCoef="0" IVar="-1" Cut="0.0000000000000000e+00" cType="1" res="-9.9000000000000000e+01" rms="0.0000000000000000e+00" purity="5.0756895542144775e-01" nType="1"/>
            <Node pos="r" depth="3" NCoef="0" IVar="-1" Cut="0.0000000000000000e+00" cType="1" res="-9.9000000000000000e+01" rms="0.0000000000000000e+00" purity="4.6148392558097839e-01" nType="-1"/>
          </Node>
          <Node pos="r" depth="2" NCoef="0" IVar="-1" Cut="0.0000000000000000e+00" cType="1" res="-9.9000000000000000e+01" rms="0.0000000000000000e+00" purity="4.6570399403572083e-01" nType="-1"/>
        </Node>
        <Node pos="r" depth="1" NCoef="0" IVar="-1" Cut="0.0000000000000000e+00" cType="1" res="-9.9000000000000000e+01" rms="0.0000000000000000e+00" purity="1.5857613086700439e-01" nType="-1"/>
      </Node>
    </BinaryTree>
    <BinaryTree type="DecisionTree" boostWeight="3.7571855824441322e-02" itree="44">
      <Node pos="s" depth="0" NCoef="0" IVar="0" Cut="9.8809528350830078e-01" cType="0" res="-9.9000000000000000e+01" rms="0.0000000000000000e+00" purity="4.8707148432731628e-01" nType="0">
        <Node pos="l" depth="1" NCoef="0" IVar="0" Cut="9.9886643886566162e-01" cType="0" res="-9.9000000000000000e+01" rms="0.0000000000000000e+00" purity="4.9607515335083008e-01" nType="0">
          <Node pos="l" depth="2" NCoef="0" IVar="0" Cut="9.9978411197662354e-01" cType="1" res="-9.9000000000000000e+01" rms="0.0000000000000000e+00" purity="4.9765723943710327e-01" nType="0">
            <Node pos="l" depth="3" NCoef="0" IVar="-1" Cut="0.0000000000000000e+00" cType="1" res="-9.9000000000000000e+01" rms="0.0000000000000000e+00" purity="5.1344567537307739e-01" nType="1"/>
            <Node pos="r" depth="3" NCoef="0" IVar="-1" Cut="0.0000000000000000e+00" cType="1" res="-9.9000000000000000e+01" rms="0.0000000000000000e+00" purity="4.9237337708473206e-01" nType="-1"/>
          </Node>
          <Node pos="r" depth="2" NCoef="0" IVar="-1" Cut="9.9732792377471924e-01" cType="1" res="-9.9000000000000000e+01" rms="0.0000000000000000e+00" purity="4.8307496309280396e-01" nType="-1"/>
        </Node>
        <Node pos="r" depth="1" NCoef="0" IVar="-1" Cut="0.0000000000000000e+00" cType="1" res="-9.9000000000000000e+01" rms="0.0000000000000000e+00" purity="1.6370742022991180e-01" nType="-1"/>
      </Node>
    </BinaryTree>
    <BinaryTree type="DecisionTree" boostWeight="3.4974080986387289e-02" itree="45">
      <Node pos="s" depth="0" NCoef="0" IVar="0" Cut="9.8809528350830078e-01" cType="0" res="-9.9000000000000000e+01" rms="0.0000000000000000e+00" purity="4.9237272143363953e-01" nType="0">
        <Node pos="l" depth="1" NCoef="0" IVar="0" Cut="9.9943321943283081e-01" cType="0" res="-9.9000000000000000e+01" rms="0.0000000000000000e+00" purity="5.0126850605010986e-01" nType="0">
          <Node pos="l" depth="2" NCoef="0" IVar="5" Cut="-1.1877480894327164e-02" cType="1" res="-9.9000000000000000e+01" rms="0.0000000000000000e+00" purity="5.0371164083480835e-01" nType="0">
            <Node pos="l" depth="3" NCoef="0" IVar="-1" Cut="0.0000000000000000e+00" cType="1" res="-9.9000000000000000e+01" rms="0.0000000000000000e+00" purity="5.2669483423233032e-01" nType="1"/>
            <Node pos="r" depth="3" NCoef="0" IVar="-1" Cut="0.0000000000000000e+00" cType="1" res="-9.9000000000000000e+01" rms="0.0000000000000000e+00" purity="4.9846157431602478e-01" nType="-1"/>
          </Node>
          <Node pos="r" depth="2" NCoef="0" IVar="5" Cut="2.6086317375302315e-03" cType="1" res="-9.9000000000000000e+01" rms="0.0000000000000000e+00" purity="4.9071773886680603e-01" nType="0">
            <Node pos="l" depth="3" NCoef="0" IVar="-1" Cut="0.0000000000000000e+00" cType="1" res="-9.9000000000000000e+01" rms="0.0000000000000000e+00" purity="5.0806063413619995e-01" nType="1"/>
            <Node pos="r" depth="3" NCoef="0" IVar="-1" Cut="0.0000000000000000e+00" cType="1" res="-9.9000000000000000e+01" rms="0.0000000000000000e+00" purity="4.5380157232284546e-01" nType="-1"/>
          </Node>
        </Node>
        <Node pos="r" depth="1" NCoef="0" IVar="-1" Cut="0.0000000000000000e+00" cType="1" res="-9.9000000000000000e+01" rms="0.0000000000000000e+00" purity="1.6891649365425110e-01" nType="-1"/>
      </Node>
    </BinaryTree>
    <BinaryTree type="DecisionTree" boostWeight="3.6390151202958701e-02" itree="46">
      <Node pos="s" depth="0" NCoef="0" IVar="0" Cut="9.8809528350830078e-01" cType="0" res="-9.9000000000000000e+01" rms="0.0000000000000000e+00" purity="4.9636670947074890e-01" nType="0">
        <Node pos="l" depth="1" NCoef="0" IVar="0" Cut="9.9943321943283081e-01" cType="0" res="-9.9000000000000000e+01" rms="0.0000000000000000e+00" purity="5.0513571500778198e-01" nType="0">
          <Node pos="l" depth="2" NCoef="0" IVar="-1" Cut="4.5744813978672028e-03" cType="0" res="-9.9000000000000000e+01" rms="0.0000000000000000e+00" purity="5.0920480489730835e-01" nType="1"/>
          <Node pos="r" depth="2" NCoef="0" IVar="-1" Cut="2.6086317375302315e-03" cType="1" res="-9.9000000000000000e+01" rms="0.0000000000000000e+00" purity="4.8755517601966858e-01" nType="-1"/>
        </Node>
        <Node pos="r" depth="1" NCoef="0" IVar="-1" Cut="0.0000000000000000e+00" cType="1" res="-9.9000000000000000e+01" rms="0.0000000000000000e+00" purity="1.7388327419757843e-01" nType="-1"/>
      </Node>
    </BinaryTree>
    <BinaryTree type="DecisionTree" boostWeight="2.7980659255749305e-02" itree="47">
      <Node pos="s" depth="0" NCoef="0" IVar="0" Cut="9.8809528350830078e-01" cType="0" res="-9.9000000000000000e+01" rms="0.0000000000000000e+00" purity="4.9107477068901062e-01" nType="0">
        <Node pos="l" depth="1" NCoef="0" IVar="5" Cut="-2.8329443186521530e-02" cType="0" res="-9.9000000000000000e+01" rms="0.0000000000000000e+00" purity="4.9945843219757080e-01" nType="0">
          <Node pos="l" depth="2" NCoef="0" IVar="5" Cut="-9.5246918499469757e-03" cType="0" res="-9.9000000000000000e+01" rms="0.0000000000000000e+00" purity="5.0087130069732666e-01" nType="0">
            <Node pos="l" depth="3" NCoef="0" IVar="-1" Cut="0.0000000000000000e+00" cType="1" res="-9.9000000000000000e+01" rms="0.0000000000000000e+00" purity="5.0324189662933350e-01" nType="1"/>
            <Node pos="r" depth="3" NCoef="0" IVar="-1" Cut="0.0000000000000000e+00" cType="1" res="-9.9000000000000000e+01" rms="0.0000000000000000e+00" purity="4.8882958292961121e-01" nType="-1"/>
          </Node>
          <Node pos="r" depth="2" NCoef="0" IVar="-1" Cut="0.0000000000000000e+00" cType="1" res="-9.9000000000000000e+01" rms="0.0000000000000000e+00" purity="4.6604472398757935e-01" nType="-1"/>
        </Node>
        <Node pos="r" depth="1" NCoef="0" IVar="-1" Cut="0.0000000000000000e+00" cType="1" res="-9.9000000000000000e+01" rms="0.0000000000000000e+00" purity="1.7917284369468689e-01" nType="-1"/>
      </Node>
    </BinaryTree>
    <BinaryTree type="DecisionTree" boostWeight="2.5718006547723098e-02" itree="48">
      <Node pos="s" depth="0" NCoef="0" IVar="-1" Cut="9.8809528350830078e-01" cType="0" res="-9.9000000000000000e+01" rms="0.0000000000000000e+00" purity="4.8714384436607361e-01" nType="-1"/>
    </BinaryTree>
    <BinaryTree type="DecisionTree" boostWeight="2.5876162497866451e-02" itree="49">
      <Node pos="s" depth="0" NCoef="0" IVar="0" Cut="9.8809528350830078e-01" cType="0" res="-9.9000000000000000e+01" rms="0.0000000000000000e+00" purity="4.9357086420059204e-01" nType="0">
        <Node pos="l" depth="1" NCoef="0" IVar="5" Cut="-2.8329443186521530e-02" cType="0" res="-9.9000000000000000e+01" rms="0.0000000000000000e+00" purity="5.0166755914688110e-01" nType="0">
          <Node pos="l" depth="2" NCoef="0" IVar="5" Cut="2.8079263865947723e-02" cType="1" res="-9.9000000000000000e+01" rms="0.0000000000000000e+00" purity="5.0260651111602783e-01" nType="0">
            <Node pos="l" depth="3" NCoef="0" IVar="-1" Cut="0.0000000000000000e+00" cType="1" res="-9.9000000000000000e+01" rms="0.0000000000000000e+00" purity="5.0363022089004517e-01" nType="1"/>
            <Node pos="r" depth="3" NCoef="0" IVar="-1" Cut="0.0000000000000000e+00" cType="1" res="-9.9000000000000000e+01" rms="0.0000000000000000e+00" purity="4.7888854146003723e-01" nType="-1"/>
          </Node>
          <Node pos="r" depth="2" NCoef="0" IVar="-1" Cut="0.0000000000000000e+00" cType="1" res="-9.9000000000000000e+01" rms="0.0000000000000000e+00" purity="4.7942867875099182e-01" nType="-1"/>
        </Node>
        <Node pos="r" depth="1" NCoef="0" IVar="-1" Cut="0.0000000000000000e+00" cType="1" res="-9.9000000000000000e+01" rms="0.0000000000000000e+00" purity="1.8720680475234985e-01" nType="-1"/>
      </Node>
    </BinaryTree>
  </Weights>
</MethodSetup>
